<?xml version="1.0"?>
<opencv_storage>
<cascade>
  <stageType>BOOST</stageType>
  <featureType>HAAR</featureType>
  <height>70</height>
  <width>100</width>
  <stageParams>
    <boostType>GAB</boostType>
    <minHitRate>9.9900001287460327e-01</minHitRate>
    <maxFalseAlarm>5.0000000000000000e-01</maxFalseAlarm>
    <weightTrimRate>9.4999999999999996e-01</weightTrimRate>
    <maxDepth>1</maxDepth>
    <maxWeakCount>100</maxWeakCount></stageParams>
  <featureParams>
    <maxCatCount>0</maxCatCount>
    <featSize>1</featSize>
    <mode>ALL</mode></featureParams>
  <stageNum>3</stageNum>
  <stages>
    <!-- stage 0 -->
    <_>
      <maxWeakCount>2</maxWeakCount>
      <stageThreshold>-3.3795127272605896e-01</stageThreshold>
      <weakClassifiers>
        <_>
          <internalNodes>
            0 -1 1 -1.4848995208740234e-01</internalNodes>
          <leafValues>
            9.1304349899291992e-01 -9.9372059106826782e-01</leafValues></_>
        <_>
          <internalNodes>
            0 -1 5 4.5286104083061218e-02</internalNodes>
          <leafValues>
            -1. 6.5576928853988647e-01</leafValues></_></weakClassifiers></_>
    <!-- stage 1 -->
    <_>
      <maxWeakCount>2</maxWeakCount>
      <stageThreshold>-2.4204744398593903e-01</stageThreshold>
      <weakClassifiers>
        <_>
          <internalNodes>
            0 -1 0 -1.8430331349372864e-01</internalNodes>
          <leafValues>
            7.0854270458221436e-01 -9.0697675943374634e-01</leafValues></_>
        <_>
          <internalNodes>
            0 -1 2 -5.6204326450824738e-02</internalNodes>
          <leafValues>
            6.6492927074432373e-01 -8.9607602357864380e-01</leafValues></_></weakClassifiers></_>
    <!-- stage 2 -->
    <_>
      <maxWeakCount>3</maxWeakCount>
      <stageThreshold>-1.1011774539947510e+00</stageThreshold>
      <weakClassifiers>
        <_>
          <internalNodes>
            0 -1 4 -4.2787622078321874e-04</internalNodes>
          <leafValues>
            4.0151515603065491e-01 -9.4827586412429810e-01</leafValues></_>
        <_>
          <internalNodes>
            0 -1 3 -9.3278903514146805e-03</internalNodes>
          <leafValues>
            5.6794559955596924e-01 -7.7371072769165039e-01</leafValues></_>
        <_>
          <internalNodes>
            0 -1 6 -2.1446133032441139e-03</internalNodes>
          <leafValues>
            6.2080913782119751e-01 -6.9052290916442871e-01</leafValues></_></weakClassifiers></_></stages>
  <features>
    <_>
      <rects>
        <_>
          12 18 76 24 -1.</_>
        <_>
          31 18 38 24 2.</_></rects>
      <tilted>0</tilted></_>
    <_>
      <rects>
        <_>
          14 16 72 28 -1.</_>
        <_>
          32 16 36 28 2.</_></rects>
      <tilted>0</tilted></_>
    <_>
      <rects>
        <_>
          27 0 70 44 -1.</_>
        <_>
          27 11 70 22 2.</_></rects>
      <tilted>0</tilted></_>
    <_>
      <rects>
        <_>
          39 29 25 12 -1.</_>
        <_>
          35 33 25 4 3.</_></rects>
      <tilted>1</tilted></_>
    <_>
      <rects>
        <_>
          49 27 2 26 -1.</_>
        <_>
          49 40 2 13 2.</_></rects>
      <tilted>0</tilted></_>
    <_>
      <rects>
        <_>
          53 19 30 25 -1.</_>
        <_>
          68 19 15 25 2.</_></rects>
      <tilted>0</tilted></_>
    <_>
      <rects>
        <_>
          58 28 15 2 -1.</_>
        <_>
          63 33 5 2 3.</_></rects>
      <tilted>1</tilted></_></features></cascade>
</opencv_storage>
